export const surveyMlWeights = {
  "classes": [
    "visual",
    "auditory",
    "readwrite",
    "kinesthetic"
  ],
  "questionCount": 20,
  "learningRate": 0.04,
  "epochs": 240,
  "trainingSamples": 100000,
  "datasetPath": "vark_survey_100k_dataset.json",
  "splitStrategy": "declared_split",
  "validAccuracy": 1,
  "testAccuracy": 1,
  "biases": [
    -0.001368,
    -0.003097,
    0.002376,
    0.002089
  ],
  "weights": [
    [
      6.386079,
      -2.134005,
      -2.129906,
      -2.123536,
      6.393039,
      -2.138278,
      -2.134856,
      -2.121273,
      6.407929,
      -2.141884,
      -2.120744,
      -2.146669,
      6.410122,
      -2.149538,
      -2.139566,
      -2.122386,
      6.399984,
      -2.144887,
      -2.129078,
      -2.127388,
      6.412287,
      -2.137537,
      -2.13682,
      -2.139298,
      6.392537,
      -2.145153,
      -2.111669,
      -2.137083,
      6.400358,
      -2.121017,
      -2.134332,
      -2.146377,
      6.407127,
      -2.148994,
      -2.139093,
      -2.120408,
      6.415642,
      -2.129183,
      -2.145016,
      -2.142812,
      6.412037,
      -2.111786,
      -2.139605,
      -2.162013,
      6.420348,
      -2.144532,
      -2.143565,
      -2.133619,
      6.404194,
      -2.126657,
      -2.145646,
      -2.133259,
      6.413289,
      -2.134034,
      -2.151923,
      -2.1287,
      6.400082,
      -2.125304,
      -2.145981,
      -2.130166,
      6.405885,
      -2.12583,
      -2.136506,
      -2.144918,
      6.402063,
      -2.139738,
      -2.134828,
      -2.128865,
      6.41106,
      -2.132255,
      -2.131443,
      -2.148731,
      6.394059,
      -2.135824,
      -2.132747,
      -2.126855,
      6.395664,
      -2.140002,
      -2.13105,
      -2.12598
    ],
    [
      -2.119403,
      6.414188,
      -2.146526,
      -2.151356,
      -2.109474,
      6.387119,
      -2.128748,
      -2.151993,
      -2.147832,
      6.408039,
      -2.149664,
      -2.113639,
      -2.148361,
      6.412566,
      -2.139204,
      -2.128099,
      -2.13977,
      6.4154,
      -2.141212,
      -2.137515,
      -2.120301,
      6.400538,
      -2.134906,
      -2.148429,
      -2.131444,
      6.409132,
      -2.158431,
      -2.122353,
      -2.132366,
      6.405914,
      -2.126608,
      -2.150037,
      -2.122663,
      6.400163,
      -2.149817,
      -2.13078,
      -2.12815,
      6.391939,
      -2.131895,
      -2.134991,
      -2.138567,
      6.391271,
      -2.141925,
      -2.113876,
      -2.165226,
      6.401936,
      -2.126409,
      -2.113398,
      -2.150163,
      6.416346,
      -2.121653,
      -2.147626,
      -2.154898,
      6.402137,
      -2.121098,
      -2.129239,
      -2.134984,
      6.404044,
      -2.138018,
      -2.134139,
      -2.140372,
      6.401826,
      -2.133448,
      -2.131103,
      -2.152787,
      6.418293,
      -2.107621,
      -2.160982,
      -2.141399,
      6.401078,
      -2.14308,
      -2.119696,
      -2.144359,
      6.415423,
      -2.128819,
      -2.145342,
      -2.137422,
      6.415926,
      -2.1461,
      -2.135501
    ],
    [
      -2.136336,
      -2.150353,
      6.414522,
      -2.125457,
      -2.130378,
      -2.129919,
      6.397499,
      -2.134826,
      -2.135098,
      -2.128519,
      6.391611,
      -2.125618,
      -2.130686,
      -2.123323,
      6.398743,
      -2.142357,
      -2.142206,
      -2.145707,
      6.408685,
      -2.118396,
      -2.143851,
      -2.132717,
      6.39048,
      -2.111536,
      -2.12248,
      -2.121732,
      6.392165,
      -2.145576,
      -2.137414,
      -2.15044,
      6.39591,
      -2.10568,
      -2.136571,
      -2.12014,
      6.414582,
      -2.155495,
      -2.13455,
      -2.134435,
      6.389931,
      -2.11857,
      -2.14064,
      -2.137399,
      6.402741,
      -2.122325,
      -2.132788,
      -2.121343,
      6.401461,
      -2.144953,
      -2.139477,
      -2.139,
      6.407492,
      -2.126639,
      -2.117918,
      -2.1389,
      6.399411,
      -2.140216,
      -2.144303,
      -2.133022,
      6.399793,
      -2.120092,
      -2.140382,
      -2.123496,
      6.406903,
      -2.14065,
      -2.107742,
      -2.14433,
      6.373618,
      -2.11917,
      -2.132084,
      -2.139442,
      6.410932,
      -2.13703,
      -2.118742,
      -2.151257,
      6.401083,
      -2.128708,
      -2.140417,
      -2.138696,
      6.406992,
      -2.125503
    ],
    [
      -2.13034,
      -2.12983,
      -2.13809,
      6.400349,
      -2.153187,
      -2.118922,
      -2.133894,
      6.408093,
      -2.124999,
      -2.137637,
      -2.121203,
      6.385927,
      -2.131074,
      -2.139705,
      -2.119974,
      6.392842,
      -2.118008,
      -2.124807,
      -2.138395,
      6.383299,
      -2.148136,
      -2.130284,
      -2.118754,
      6.399263,
      -2.138612,
      -2.142247,
      -2.122065,
      6.405012,
      -2.130578,
      -2.134457,
      -2.13497,
      6.402094,
      -2.147893,
      -2.131029,
      -2.125672,
      6.406683,
      -2.152943,
      -2.128321,
      -2.11302,
      6.396372,
      -2.13283,
      -2.142085,
      -2.121211,
      6.398215,
      -2.122334,
      -2.136061,
      -2.131487,
      6.391971,
      -2.114555,
      -2.150688,
      -2.140193,
      6.407525,
      -2.140473,
      -2.129203,
      -2.126391,
      6.398155,
      -2.120795,
      -2.145718,
      -2.115794,
      6.384396,
      -2.125132,
      -2.1525,
      -2.13695,
      6.41667,
      -2.141535,
      -2.134225,
      -2.131169,
      6.409017,
      -2.137577,
      -2.129381,
      -2.136409,
      6.405456,
      -2.130958,
      -2.128342,
      -2.139517,
      6.400905,
      -2.117825,
      -2.137228,
      -2.129842,
      6.386984
    ]
  ]
};

export default surveyMlWeights;
